tree
version=v4
num_class=1
num_tree_per_iteration=1
label_index=0
max_feature_idx=49
objective=regression
feature_names=RET_1 VOL_YES_1 VOL_NO_1 VOL_TOTAL_1 RET_2 VOL_YES_2 VOL_NO_2 VOL_TOTAL_2 RET_3 VOL_YES_3 VOL_NO_3 VOL_TOTAL_3 RET_4 VOL_YES_4 VOL_NO_4 VOL_TOTAL_4 RET_5 VOL_YES_5 VOL_NO_5 VOL_TOTAL_5 RET_6 VOL_YES_6 VOL_NO_6 VOL_TOTAL_6 RET_7 VOL_YES_7 VOL_NO_7 VOL_TOTAL_7 RET_8 VOL_YES_8 VOL_NO_8 VOL_TOTAL_8 RET_9 VOL_YES_9 VOL_NO_9 VOL_TOTAL_9 RET_10 VOL_YES_10 VOL_NO_10 VOL_TOTAL_10 RET_MEAN_5 RET_STD_5 VOL_MEAN_5 RET_MEAN_10 RET_STD_10 VOL_MEAN_10 DIST_50 DIST_MIN_20 DIST_MAX_20 VOL_IMBALANCE
feature_infos=[-0.1875:0.13661402864487715] none none none [-0.1875:0.13661402864487715] none none none [-0.1875:0.13661402864487715] none none none [-0.1875:0.13661402864487715] none none none [-0.1875:0.13661402864487715] none none none [-0.1875:0.13661402864487715] none none none [-0.1875:0.13661402864487715] none none none [-0.1875:0.13661402864487715] none none none [-0.1875:0.13661402864487715] none none none [-0.1875:0.13661402864487715] none none none [-0.060553127435755291:0.061582901105958897] [0.0069167351844175015:0.11420342363815295] none [-0.043358133304900917:0.04267535662720804] [0.020962024250413356:0.098132000074192399] none [0.089199999999999877:0.92000000000000004] [0:0.99999999996775235] [0:0.99999999997018496] none
tree_sizes=649 661 679 665 539 538 648 665 524 526 678 559 538 667 525 528 663 538 662 660 661 551 577 581 671 657 674 550 551 550 535 688 682 547 538 671 549 691 676 538 672 538 550 538 540 538 539 669 673 673 537 661 539 539 674 679 675 549 549 551 551 540 675 691 537 532 530 530 549 570 551 550 535 549 550 579 676 675 674 661 551 539 547 538 552 550 676 674 678 674 552 691 673 530 537 537 535 674 539 676 678 551 541 681 692 553 553 553 552 531 679 661 539 541 550 685 663 541 677 550 553

Tree=0
num_leaves=5
num_cat=0
split_feature=44 4 46 48
split_gain=0.018903 0.0126684 0.0105438 0.00970675
threshold=0.075953101641225082 0.0078084752778028186 0.4632 0.73834511303286976
decision_type=10 10 10 8
left_child=1 2 -1 -4
right_child=-2 -3 3 -5
leaf_value=-0.0009147074234371939 -0.00071784102070357545 -0.00084056271766033393 -0.001022685130331403 -0.0012707691962583322
leaf_weight=12.999999999999998 11.999999999999998 13.999999999999998 14.999999999999998 17
leaf_count=13 12 14 15 17
internal_value=-0.000974857 -0.00102713 -0.00108521 -0.00115453
internal_weight=71 59 45 32
internal_count=71 59 45 32
is_linear=0
shrinkage=0.3675


Tree=1
num_leaves=5
num_cat=0
split_feature=28 16 41 0
split_gain=0.0150472 0.0187389 0.00512447 0.00411235
threshold=-0.020931125503739375 -0.0041634084780617911 0.030443051552334909 0.03774928774928777
decision_type=8 8 10 8
left_child=-1 -2 3 -3
right_child=1 2 -4 -5
leaf_value=0.00014399397691297437 -0.00014030780728892424 4.7554936609768664e-05 9.9939581048027516e-05 -6.4633822438192598e-05
leaf_weight=11.999999999999998 20 13.000000000000002 12.999999999999998 12.999999999999998
leaf_count=12 20 13 13 13
internal_value=0 -2.92866e-05 2.76202e-05 -8.49868e-06
internal_weight=71 59 39 26
internal_count=71 59 39 26
is_linear=0
shrinkage=0.00446076


Tree=2
num_leaves=5
num_cat=0
split_feature=4 28 16 0
split_gain=0.0164973 0.0142856 0.0179349 0.00289032
threshold=0.028236405807061108 -0.015771499882627434 -0.0041634084780617911 -0.040049482681061614
decision_type=10 8 8 10
left_child=1 -1 -3 -4
right_child=-2 2 3 -5
leaf_value=0.00012445482122029031 0.00016157409259170979 -0.00024305658777152951 -6.2298098437433923e-05 4.7285532176602501e-05
leaf_weight=11.999999999999998 14.999999999999998 14.999999999999998 14.999999999999995 14.000000000000005
leaf_count=12 15 15 15 14
internal_value=0 -4.32779e-05 -8.90528e-05 -9.35071e-06
internal_weight=71 56 44 29
internal_count=71 56 44 29
is_linear=0
shrinkage=0.00548586


Tree=3
num_leaves=5
num_cat=0
split_feature=44 16 4 0
split_gain=0.0174841 0.0120491 0.00627142 0.00264409
threshold=0.075953101641225082 -0.0041634084780617911 -1.0000000180025095e-35 -0.03292461329661333
decision_type=10 8 10 10
left_child=1 -1 3 -3
right_child=-2 2 -4 -5
leaf_value=-0.00011401432805230752 0.00014675063703565189 -6.8388094044846302e-05 8.4774883157936863e-05 1.8377559197341664e-05
leaf_weight=20 11.999999999999998 12.999999999999998 13.999999999999998 12.000000000000002
leaf_count=20 12 13 14 12
internal_value=0 -2.98466e-05 1.32906e-05 -2.67005e-05
internal_weight=71 59 39 25
internal_count=71 59 39 25
is_linear=0
shrinkage=0.00421745


Tree=4
num_leaves=4
num_cat=0
split_feature=44 20 48
split_gain=0.0168147 0.0180193 0.0144304
threshold=0.075953101641225082 -0.037040953309181883 0.73834511303286976
decision_type=10 10 8
left_child=1 -1 -3
right_child=-2 2 -4
leaf_value=0.00010507424293857977 0.00021648594901070125 -2.6555491043471868e-05 -0.00027956674900844476
leaf_weight=21 11.999999999999998 23 14.999999999999998
leaf_count=21 12 23 15
internal_value=0 -4.40291e-05 -0.000126468
internal_weight=71 59 38
internal_count=71 59 38
is_linear=0
shrinkage=0.00634419


Tree=5
num_leaves=4
num_cat=0
split_feature=44 20 48
split_gain=0.0161709 0.0173296 0.0138777
threshold=0.075953101641225082 -0.037040953309181883 0.73834511303286976
decision_type=10 10 8
left_child=1 -1 -3
right_child=-2 2 -4
leaf_value=0.00014270892897105884 0.00029402521307899537 -3.606693273392201e-05 -0.00037969979387564588
leaf_weight=21 11.999999999999998 23 14.999999999999998
leaf_count=21 12 23 15
internal_value=0 -5.97991e-05 -0.000171766
internal_weight=71 59 38
internal_count=71 59 38
is_linear=0
shrinkage=0.00878635


Tree=6
num_leaves=5
num_cat=0
split_feature=44 4 46 47
split_gain=0.0158964 0.0116605 0.00973521 0.00743905
threshold=0.075953101641225082 0.0078084752778028186 0.4632 0.33297433133683002
decision_type=10 10 10 10
left_child=1 2 -1 -4
right_child=-2 -3 3 -5
leaf_value=4.366368058399669e-05 0.00017102436249804561 9.5097353460336061e-05 -0.00019287928493897478 -3.4329653835509541e-05
leaf_weight=12.999999999999998 11.999999999999998 13.999999999999998 18 13.999999999999998
leaf_count=13 12 14 18 14
internal_value=0 -3.47835e-05 -7.52181e-05 -0.000123552
internal_weight=71 59 45 32
internal_count=71 59 45 32
is_linear=0
shrinkage=0.00515466


Tree=7
num_leaves=5
num_cat=0
split_feature=44 16 4 0
split_gain=0.0154195 0.0112623 0.00619316 0.00275402
threshold=0.075953101641225082 -0.0041634084780617911 -1.0000000180025095e-35 -0.03292461329661333
decision_type=10 8 10 10
left_child=1 -1 3 -3
right_child=-2 2 -4 -5
leaf_value=-0.00017618804265264197 0.00022194377298818729 -0.00011049488974693125 0.00013642554745010654 3.2117829440356653e-05
leaf_weight=20 11.999999999999998 12.999999999999998 13.999999999999998 12.000000000000002
leaf_count=20 12 13 14 12
internal_value=0 -4.51391e-05 2.20241e-05 -4.19762e-05
internal_weight=71 59 39 25
internal_count=71 59 39 25
is_linear=0
shrinkage=0.00679202


Tree=8
num_leaves=4
num_cat=0
split_feature=44 20 20
split_gain=0.0148291 0.016624 0.0131875
threshold=0.075953101641225082 -0.037040953309181883 1.0000000180025095e-35
decision_type=10 10 10
left_child=1 -1 -3
right_child=-2 2 -4
leaf_value=0.00010122117384588068 0.00020201642568688284 -0.00023118122368919676 3.940112682104954e-06
leaf_weight=21 11.999999999999998 20 18
leaf_count=21 12 20 18
internal_value=0 -4.10858e-05 -0.000119769
internal_weight=71 59 38
internal_count=71 59 38
is_linear=0
shrinkage=0.00630405


Tree=9
num_leaves=4
num_cat=0
split_feature=44 20 20
split_gain=0.0145561 0.0160273 0.0129005
threshold=0.075953101641225082 -0.037040953309181883 1.0000000180025095e-35
decision_type=10 10 10
left_child=1 -1 -3
right_child=-2 2 -4
leaf_value=7.0663673443750144e-05 0.00014282749728338907 -0.00016281467453449944 3.1335678455604649e-06
leaf_weight=21 11.999999999999998 20 18
leaf_count=21 12 20 18
internal_value=0 -2.90477e-05 -8.41795e-05
internal_weight=71 59 38
internal_count=71 59 38
is_linear=0
shrinkage=0.00449861


Tree=10
num_leaves=5
num_cat=0
split_feature=4 28 16 0
split_gain=0.0139663 0.0140142 0.0158446 0.00270698
threshold=0.028236405807061108 -0.015771499882627434 -0.0041634084780617911 -0.040049482681061614
decision_type=10 8 8 10
left_child=1 -1 -3 -4
right_child=-2 2 3 -5
leaf_value=0.00012582153357778504 0.00014808516646472298 -0.00022901075485867121 -6.124064886718366e-05 4.4393786837371456e-05
leaf_weight=11.999999999999998 14.999999999999998 14.999999999999998 14.999999999999995 14.000000000000005
leaf_count=12 15 15 15 14
internal_value=0 -3.96625e-05 -8.4824e-05 -1.01999e-05
internal_weight=71 56 44 29
internal_count=71 56 44 29
is_linear=0
shrinkage=0.00546443


Tree=11
num_leaves=4
num_cat=0
split_feature=4 46 16
split_gain=0.0141538 0.0109315 0.0129193
threshold=0.028236405807061108 0.4632 -1.0000000180025095e-35
decision_type=10 10 10
left_child=1 -1 -3
right_child=-2 2 -4
leaf_value=5.932236325950494e-05 0.00010952502629537834 -0.00013345421140784731 1.0985096714637969e-05
leaf_weight=15.999999999999998 14.999999999999998 20.999999999999996 19.000000000000004
leaf_count=16 15 21 19
internal_value=0 -2.93349e-05 -6.48217e-05
internal_weight=71 56 40
internal_count=71 56 40
is_linear=0
shrinkage=0.00401468


Tree=12
num_leaves=4
num_cat=0
split_feature=44 20 48
split_gain=0.0140296 0.0155747 0.012951
threshold=0.075953101641225082 -0.037040953309181883 0.73834511303286976
decision_type=10 10 8
left_child=1 -1 -3
right_child=-2 2 -4
leaf_value=9.7843017221662998e-05 0.00019662479511971221 -2.2078724892698213e-05 -0.0002604104861827066
leaf_weight=21 11.999999999999998 23 14.999999999999998
leaf_count=21 12 23 15
internal_value=0 -3.99875e-05 -0.000116196
internal_weight=71 59 38
internal_count=71 59 38
is_linear=0
shrinkage=0.00630815


Tree=13
num_leaves=5
num_cat=0
split_feature=44 4 46 16
split_gain=0.0134925 0.0105783 0.00881507 0.00925357
threshold=0.075953101641225082 0.0078084752778028186 0.4632 -1.0000000180025095e-35
decision_type=10 10 10 10
left_child=1 2 -1 -4
right_child=-2 -3 3 -5
leaf_value=4.7884516110332529e-05 0.00017726039085733344 0.0001031196857325119 -0.00021809560587702546 -1.919613310775976e-05
leaf_weight=12.999999999999998 11.999999999999998 13.999999999999998 17.999999999999993 14.000000000000005
leaf_count=13 12 14 18 14
internal_value=0 -3.60494e-05 -7.93771e-05 -0.00013112
internal_weight=71 59 45 32
internal_count=71 59 45 32
is_linear=0
shrinkage=0.00579899


Tree=14
num_leaves=4
num_cat=0
split_feature=28 4 20
split_gain=0.0131994 0.0166555 0.0124001
threshold=-0.020931125503739375 1.0000000180025095e-35 1.0000000180025095e-35
decision_type=8 10 8
left_child=-1 2 -2
right_child=1 -3 -4
leaf_value=0.0002275854510989358 -0.00027281343128915674 0.0001371795541336537 -7.3180847818874602e-06
leaf_weight=11.999999999999998 19 19 21
leaf_count=12 19 19 21
internal_value=0 -4.62834e-05 -0.000133473
internal_weight=71 59 40
internal_count=71 59 40
is_linear=0
shrinkage=0.00752753


Tree=15
num_leaves=4
num_cat=0
split_feature=44 16 12
split_gain=0.012708 0.00942234 0.00287234
threshold=0.075953101641225082 -0.0041634084780617911 -0.0096246615516952776
decision_type=10 8 10
left_child=1 -1 -3
right_child=-2 2 -4
leaf_value=-0.00010038584882020605 0.00012575329992466758 -2.2658249126521935e-05 5.0105743758432333e-05
leaf_weight=20 11.999999999999998 20 19
leaf_count=20 12 20 19
internal_value=0 -2.55741e-05 1.27651e-05
internal_weight=71 59 39
internal_count=71 59 39
is_linear=0
shrinkage=0.00423903


Tree=16
num_leaves=5
num_cat=0
split_feature=28 4 16 46
split_gain=0.0129064 0.0164606 0.0122962 0.00226073
threshold=-0.020931125503739375 1.0000000180025095e-35 -0.0041634084780617911 0.58840000000000015
decision_type=8 10 8 10
left_child=-1 2 -2 -4
right_child=1 -3 3 -5
leaf_value=0.00010095139193794675 -0.00013585102180821302 6.1285125984818776e-05 1.9857746046689707e-05 -4.4388125276261901e-05
leaf_weight=11.999999999999998 14.999999999999998 19 12.000000000000002 12.999999999999998
leaf_count=12 15 19 12 13
internal_value=0 -2.05305e-05 -5.9413e-05 -1.3518e-05
internal_weight=71 59 40 25
internal_count=71 59 40 25
is_linear=0
shrinkage=0.00337673


Tree=17
num_leaves=4
num_cat=0
split_feature=44 20 48
split_gain=0.0124814 0.0144994 0.0122441
threshold=0.075953101641225082 -0.037040953309181883 0.73834511303286976
decision_type=10 10 8
left_child=1 -1 -3
right_child=-2 2 -4
leaf_value=9.1959374912006136e-05 0.00017901384089624863 -1.90478138681636e-05 -0.00024273182940089103
leaf_weight=21 11.999999999999998 23 14.999999999999998
leaf_count=21 12 23 15
internal_value=0 -3.64056e-05 -0.000107382
internal_weight=71 59 38
internal_count=71 59 38
is_linear=0
shrinkage=0.00608894


Tree=18
num_leaves=5
num_cat=0
split_feature=28 16 41 46
split_gain=0.0126335 0.0136646 0.00389363 0.00195582
threshold=-0.020931125503739375 -0.0041634084780617911 0.030443051552334909 0.7047000000000001
decision_type=8 8 10 8
left_child=-1 -2 3 -3
right_child=1 2 -4 -5
leaf_value=0.00014194487849144847 -0.00013086056995766223 3.1108077785990276e-05 9.1228322551431529e-05 -5.2113620620970347e-05
leaf_weight=11.999999999999998 20 13.000000000000002 12.999999999999998 12.999999999999998
leaf_count=12 20 13 13 13
internal_value=0 -2.88674e-05 2.34076e-05 -1.04589e-05
internal_weight=71 59 39 26
internal_count=71 59 39 26
is_linear=0
shrinkage=0.00479893


Tree=19
num_leaves=5
num_cat=0
split_feature=28 16 41 46
split_gain=0.0124887 0.0136742 0.00390426 0.00194488
threshold=-0.020931125503739375 -0.0041634084780617911 0.030443051552334909 0.7047000000000001
decision_type=8 8 10 8
left_child=-1 -2 3 -3
right_child=1 2 -4 -5
leaf_value=0.00016616629025532502 -0.00015392291659930912 3.6652821950192426e-05 0.00010773897764477333 -6.1058974248248872e-05
leaf_weight=11.999999999999998 20 13.000000000000002 12.999999999999998 12.999999999999998
leaf_count=12 20 13 13 13
internal_value=0 -3.3793e-05 2.77776e-05 -1.21514e-05
internal_weight=71 59 39 26
internal_count=71 59 39 26
is_linear=0
shrinkage=0.0056503


Tree=20
num_leaves=5
num_cat=0
split_feature=44 16 0 44
split_gain=0.0133243 0.0094059 0.00536361 0.00785939
threshold=0.075953101641225082 -0.0041634084780617911 0.03774928774928777 0.049198652946219973
decision_type=10 8 8 8
left_child=1 -1 3 -3
right_child=-2 2 -4 -5
leaf_value=-0.00011932539427002003 0.00015223065844546037 -2.9792062265659349e-05 -5.9972994039004932e-05 0.00015151916563188326
leaf_weight=20 11.999999999999998 12.000000000000002 14.999999999999998 11.999999999999998
leaf_count=20 12 12 15 12
internal_value=0 -3.09588e-05 1.43269e-05 6.08139e-05
internal_weight=71 59 39 24
internal_count=71 59 39 24
is_linear=0
shrinkage=0.00501147


Tree=21
num_leaves=4
num_cat=0
split_feature=44 20 48
split_gain=0.0142332 0.0151207 0.0132311
threshold=0.075953101641225082 -0.037040953309181883 0.73834511303286976
decision_type=10 10 8
left_child=1 -1 -3
right_child=-2 2 -4
leaf_value=4.2922303125641951e-05 9.8767039868801563e-05 -2.0135934696847813e-05 -0.00015137148206986487
leaf_weight=21 11.999999999999998 23 14.999999999999998
leaf_count=21 12 23 15
internal_value=-9.10295e-06 -3.10564e-05 -7.19609e-05
internal_weight=71 59 38
internal_count=71 59 38
is_linear=0
shrinkage=0.00343644


Tree=22
num_leaves=4
num_cat=0
split_feature=4 46 8
split_gain=0.0124513 0.0103925 0.00610045
threshold=0.028236405807061108 0.7047000000000001 0.0078084752778028186
decision_type=10 10 8
left_child=1 2 -1
right_child=-2 -3 -4
leaf_value=-5.32918892785444e-05 0.00011596110643553901 -0.00014872244097975264 5.693698101580746e-05
leaf_weight=22.000000000000004 14.999999999999998 12.999999999999998 20.999999999999996
leaf_count=22 15 13 21
internal_value=-2.38903e-06 -3.41096e-05 5.15254e-07
internal_weight=71 56 43
internal_count=71 56 43
is_linear=0
shrinkage=0.00462597


Tree=23
num_leaves=4
num_cat=0
split_feature=4 46 8
split_gain=0.0134327 0.0105207 0.00641883
threshold=0.028236405807061108 0.7047000000000001 0.0078084752778028186
decision_type=10 10 8
left_child=1 2 -1
right_child=-2 -3 -4
leaf_value=-3.9792532033236261e-05 6.7259466108180957e-05 -9.7488333634444804e-05 2.8891354353020795e-05
leaf_weight=22.000000000000004 14.999999999999998 12.999999999999998 20.999999999999996
leaf_count=22 15 13 21
internal_value=-7.41558e-06 -2.74297e-05 -6.23371e-06
internal_weight=71 56 43
internal_count=71 56 43
is_linear=0
shrinkage=0.00281028


Tree=24
num_leaves=5
num_cat=0
split_feature=28 4 16 0
split_gain=0.0125608 0.0163372 0.0118578 0.00215111
threshold=-0.020931125503739375 1.0000000180025095e-35 -0.0041634084780617911 0.03774928774928777
decision_type=8 10 8 8
left_child=-1 2 -2 -4
right_child=1 -3 3 -5
leaf_value=9.1019174825558317e-05 -0.00012944476428540741 5.484655233109637e-05 1.2264817669519156e-05 -4.6860992221253112e-05
leaf_weight=11.999999999999998 14.999999999999998 19 13.000000000000002 11.999999999999998
leaf_count=12 15 19 13 12
internal_value=-2.93989e-06 -2.2063e-05 -5.8614e-05 -1.60853e-05
internal_weight=71 59 40 25
internal_count=71 59 40 25
is_linear=0
shrinkage=0.00318626


Tree=25
num_leaves=5
num_cat=0
split_feature=44 4 46 48
split_gain=0.01265 0.0098209 0.00834135 0.00872204
threshold=0.075953101641225082 0.0078084752778028186 0.4632 0.73834511303286976
decision_type=10 10 10 8
left_child=1 2 -1 -4
right_child=-2 -3 3 -5
leaf_value=5.5905670381110142e-05 0.00022234858570473401 0.00012548912801965239 -4.0479778196554407e-05 -0.00029713098078913133
leaf_weight=12.999999999999998 11.999999999999998 13.999999999999998 14.999999999999998 17
leaf_count=13 12 14 15 17
internal_value=-7.08359e-06 -5.3779e-05 -0.000109592 -0.000176883
internal_weight=71 59 45 32
internal_count=71 59 45 32
is_linear=0
shrinkage=0.00775282


Tree=26
num_leaves=5
num_cat=0
split_feature=28 4 16 46
split_gain=0.012163 0.0153442 0.011507 0.00222672
threshold=-0.020931125503739375 1.0000000180025095e-35 -0.0041634084780617911 0.58840000000000015
decision_type=8 10 8 10
left_child=-1 2 -2 -4
right_child=1 -3 3 -5
leaf_value=0.00017532378114401947 -0.00024824016347548873 0.00010343256246427879 3.1408066722262482e-05 -8.6301286055216324e-05
leaf_weight=11.999999999999998 14.999999999999998 19 12.000000000000002 12.999999999999998
leaf_count=12 15 19 12 13
internal_value=-5.58529e-06 -4.24055e-05 -0.000111716 -2.97415e-05
internal_weight=71 59 40 25
internal_count=71 59 40 25
is_linear=0
shrinkage=0.00623437


Tree=27
num_leaves=4
num_cat=0
split_feature=44 20 48
split_gain=0.0126782 0.0146547 0.0118617
threshold=0.075953101641225082 -0.037040953309181883 0.73834511303286976
decision_type=10 10 8
left_child=1 -1 -3
right_child=-2 2 -4
leaf_value=5.9135912273858129e-05 0.0001190397424463553 -1.8044934266168069e-05 -0.00016782091802606261
leaf_weight=21 11.999999999999998 23 14.999999999999998
leaf_count=21 12 23 15
internal_value=-3.67651e-06 -2.86524e-05 -7.71929e-05
internal_weight=71 59 38
internal_count=71 59 38
is_linear=0
shrinkage=0.00414213


Tree=28
num_leaves=4
num_cat=0
split_feature=44 20 48
split_gain=0.0130634 0.0150294 0.0124893
threshold=0.075953101641225082 -0.037040953309181883 0.73834511303286976
decision_type=10 10 8
left_child=1 -1 -3
right_child=-2 2 -4
leaf_value=6.4530742847598559e-05 0.00013023928920668831 -1.8790932693479163e-05 -0.00018429787565100791
leaf_weight=21 11.999999999999998 23 14.999999999999998
leaf_count=21 12 23 15
internal_value=-3.90962e-06 -3.12121e-05 -8.41505e-05
internal_weight=71 59 38
internal_count=71 59 38
is_linear=0
shrinkage=0.00446076


Tree=29
num_leaves=4
num_cat=0
split_feature=44 20 48
split_gain=0.0121408 0.0140988 0.0117192
threshold=0.075953101641225082 -0.037040953309181883 0.73834511303286976
decision_type=10 10 8
left_child=1 -1 -3
right_child=-2 2 -4
leaf_value=0.00012966901882147523 0.00026016152612040204 -3.7689138728825185e-05 -0.00037021753325872954
leaf_weight=21 11.999999999999998 23 14.999999999999998
leaf_count=21 12 23 15
internal_value=-8.0694e-06 -6.26621e-05 -0.000169008
internal_weight=71 59 38
internal_count=71 59 38
is_linear=0
shrinkage=0.00925202


Tree=30
num_leaves=4
num_cat=0
split_feature=28 40 47
split_gain=0.0118375 0.00899032 0.00501915
threshold=-0.020931125503739375 0.02181153816030305 0.22614788311788483
decision_type=8 8 10
left_child=-1 2 -2
right_child=1 -3 -4
leaf_value=0.00014619612022763982 -0.00014830031743580255 4.9061744509791582e-05 -2.5537556325623843e-05
leaf_weight=11.999999999999998 18 22 19
leaf_count=12 18 22 19
internal_value=-4.50221e-06 -3.51739e-05 -8.52938e-05
internal_weight=71 59 37
internal_count=71 59 37
is_linear=0
shrinkage=0.00526418


Tree=31
num_leaves=5
num_cat=0
split_feature=4 28 20 0
split_gain=0.0122953 0.0121889 0.0100945 0.00406807
threshold=0.028236405807061108 -0.015771499882627434 1.0000000180025095e-35 0.028236405807061108
decision_type=10 8 8 8
left_child=1 -1 -3 -4
right_child=-2 2 3 -5
leaf_value=9.9290878203710782e-05 0.00011859617653279504 -0.00015462007050632152 5.5295601382414616e-05 -7.0524382906378321e-05
leaf_weight=11.999999999999998 14.999999999999998 20.000000000000004 11.999999999999998 11.999999999999998
leaf_count=12 15 20 12 12
internal_value=-4.2594e-06 -3.71876e-05 -7.44352e-05 -7.56655e-06
internal_weight=71 56 44 24
internal_count=71 56 44 24
is_linear=0
shrinkage=0.00483249


Tree=32
num_leaves=5
num_cat=0
split_feature=44 4 46 16
split_gain=0.0119069 0.00918173 0.00773162 0.00828657
threshold=0.075953101641225082 0.0078084752778028186 0.4632 -1.0000000180025095e-35
decision_type=10 10 10 10
left_child=1 2 -1 -4
right_child=-2 -3 3 -5
leaf_value=6.1815087169509136e-05 0.00024958103902250395 0.00014033952550331454 -0.00032421983334366241 -3.3500015018541791e-05
leaf_weight=12.999999999999998 11.999999999999998 13.999999999999998 17.999999999999993 14.000000000000005
leaf_count=13 12 14 18 14
internal_value=-7.56872e-06 -5.99064e-05 -0.000122252 -0.000197096
internal_weight=71 59 45 32
internal_count=71 59 45 32
is_linear=0
shrinkage=0.00895651


Tree=33
num_leaves=4
num_cat=0
split_feature=44 20 48
split_gain=0.011451 0.013398 0.0111913
threshold=0.075953101641225082 -0.037040953309181883 0.73834511303286976
decision_type=10 10 8
left_child=1 -1 -3
right_child=-2 2 -4
leaf_value=0.00013154318359839405 0.00026228314422899722 -3.7373801280154989e-05 -0.00037447518112905987
leaf_weight=21 11.999999999999998 23 14.999999999999998
leaf_count=21 12 23 15
internal_value=-7.95268e-06 -6.29545e-05 -0.0001705
internal_weight=71 59 38
internal_count=71 59 38
is_linear=0
shrinkage=0.00959786


Tree=34
num_leaves=4
num_cat=0
split_feature=28 40 24
split_gain=0.0111524 0.00836261 0.00507314
threshold=-0.020931125503739375 0.02181153816030305 -1.0000000180025095e-35
decision_type=8 8 8
left_child=-1 2 -2
right_child=1 -3 -4
leaf_value=0.00021609075651601848 -2.3505892487914159e-05 7.1817215942395035e-05 -0.00021187583970333425
leaf_weight=11.999999999999998 17 22 20
leaf_count=12 17 22 20
internal_value=-6.50909e-06 -5.18159e-05 -0.000125379
internal_weight=71 59 37
internal_count=71 59 37
is_linear=0
shrinkage=0.00801113


Tree=35
num_leaves=5
num_cat=0
split_feature=44 16 0 44
split_gain=0.011012 0.00775011 0.00604226 0.00711219
threshold=0.075953101641225082 -0.0041634084780617911 0.03774928774928777 0.049198652946219973
decision_type=10 8 8 8
left_child=1 -1 3 -3
right_child=-2 2 -4 -5
leaf_value=-0.00030594121687832422 0.00036586934076782808 -7.5959476976833812e-05 -0.00019036927753957253 0.00039363239059241962
leaf_weight=20 11.999999999999998 12.000000000000002 14.999999999999998 11.999999999999998
leaf_count=20 12 12 15 12
internal_value=-1.08712e-05 -8.75514e-05 2.43603e-05 0.000158701
internal_weight=71 59 39 24
internal_count=71 59 39 24
is_linear=0
shrinkage=0.0136447


Tree=36
num_leaves=4
num_cat=0
split_feature=44 16 8
split_gain=0.0114109 0.00778381 0.00235397
threshold=0.075953101641225082 -0.0041634084780617911 0.0406419298641938
decision_type=10 8 8
left_child=1 -1 -3
right_child=-2 2 -4
leaf_value=-0.00014534989572849113 0.00017596147148007612 5.2747837138469556e-05 -4.900426714793933e-05
leaf_weight=20 11.999999999999998 23 15.999999999999998
leaf_count=20 12 23 16
internal_value=-5.13799e-06 -4.19977e-05 1.09641e-05
internal_weight=71 59 39
internal_count=71 59 39
is_linear=0
shrinkage=0.00644332


Tree=37
num_leaves=5
num_cat=0
split_feature=44 4 28 40
split_gain=0.0116959 0.00911797 0.00660929 0.0113985
threshold=0.075953101641225082 0.0078084752778028186 -0.0068849807221900696 0.0031199264670908173
decision_type=10 10 8 8
left_child=1 2 -1 -4
right_child=-2 -3 3 -5
leaf_value=1.1131708316448771e-05 7.6645142497801247e-05 4.130441979985892e-05 -0.00013518141111799984 -2.1641228665806323e-05
leaf_weight=12.999999999999998 11.999999999999998 13.999999999999998 13.000000000000004 18.999999999999993
leaf_count=13 12 14 13 19
internal_value=-7.38623e-06 -2.44893e-05 -4.4974e-05 -6.77889e-05
internal_weight=71 59 45 32
internal_count=71 59 45 32
is_linear=0
shrinkage=0.00295319


Tree=38
num_leaves=5
num_cat=0
split_feature=44 4 24 40
split_gain=0.0108051 0.00867888 0.00464822 0.00913189
threshold=0.075953101641225082 0.0078084752778028186 -1.0000000180025095e-35 0.015960761086761647
decision_type=10 10 8 8
left_child=1 2 -1 -4
right_child=-2 -3 3 -5
leaf_value=7.8661850597051112e-06 0.00021463475443904954 0.00012335748991599746 -0.00033093811795795755 -4.3338924472680636e-05
leaf_weight=14.999999999999998 11.999999999999998 13.999999999999998 13.000000000000004 17
leaf_count=15 12 14 13 17
internal_value=-8.65441e-06 -5.4102e-05 -0.000109355 -0.00016803
internal_weight=71 59 45 30
internal_count=71 59 45 30
is_linear=0
shrinkage=0.00816414


Tree=39
num_leaves=4
num_cat=0
split_feature=28 4 20
split_gain=0.0105432 0.0135156 0.0103622
threshold=-0.020931125503739375 1.0000000180025095e-35 1.0000000180025095e-35
decision_type=8 10 8
left_child=-1 2 -2
right_child=1 -3 -4
leaf_value=0.00019939165052964051 -0.00026016138854415065 0.00011832650927072571 -1.2672557574144174e-05
leaf_weight=11.999999999999998 19 19 21
leaf_count=12 19 19 21
internal_value=-7.97835e-06 -5.01862e-05 -0.000130275
internal_weight=71 59 40
internal_count=71 59 40
is_linear=0
shrinkage=0.00767569


Tree=40
num_leaves=5
num_cat=0
split_feature=44 16 0 40
split_gain=0.0110441 0.00787844 0.00544719 0.0071754
threshold=0.075953101641225082 -0.0041634084780617911 0.03774928774928777 0.0060046362452933046
decision_type=10 8 8 8
left_child=1 -1 3 -3
right_child=-2 2 -4 -5
leaf_value=-6.6116361250441482e-05 7.7165713710389153e-05 -1.833061639281853e-05 -3.8672890390719798e-05 8.1902702591138334e-05
leaf_weight=20 11.999999999999998 12.000000000000002 14.999999999999998 11.999999999999998
leaf_count=20 12 12 15 12
internal_value=-3.00799e-06 -1.93262e-05 4.65113e-06 3.17573e-05
internal_weight=71 59 39 24
internal_count=71 59 39 24
is_linear=0
shrinkage=0.00289949


Tree=41
num_leaves=4
num_cat=0
split_feature=44 20 20
split_gain=0.0111878 0.013396 0.0104351
threshold=0.075953101641225082 -0.037040953309181883 1.0000000180025095e-35
decision_type=10 10 10
left_child=1 -1 -3
right_child=-2 2 -4
leaf_value=5.2367623496198256e-05 0.00010352087051230399 -0.00013006224357991475 -1.7033708170114182e-06
leaf_weight=21 11.999999999999998 20 18
leaf_count=21 12 20 18
internal_value=-4.07065e-06 -2.59692e-05 -6.92848e-05
internal_weight=71 59 38
internal_count=71 59 38
is_linear=0
shrinkage=0.00386599


Tree=42
num_leaves=4
num_cat=0
split_feature=44 20 48
split_gain=0.0103506 0.0127899 0.0110597
threshold=0.075953101641225082 -0.037040953309181883 0.73834511303286976
decision_type=10 10 8
left_child=1 -1 -3
right_child=-2 2 -4
leaf_value=9.6458037120256227e-05 0.0001863209311498374 -2.6265210025513674e-05 -0.00027893492837638959
leaf_weight=21 11.999999999999998 23 14.999999999999998
leaf_count=21 12 23 15
internal_value=-7.39344e-06 -4.68221e-05 -0.000126049
internal_weight=71 59 38
internal_count=71 59 38
is_linear=0
shrinkage=0.00723663


Tree=43
num_leaves=4
num_cat=0
split_feature=28 4 20
split_gain=0.0103828 0.0131052 0.00991385
threshold=-0.020931125503739375 1.0000000180025095e-35 1.0000000180025095e-35
decision_type=8 10 8
left_child=-1 2 -2
right_child=1 -3 -4
leaf_value=0.00019074076396740174 -0.00024599895054425934 0.00011203754720570536 -1.2909079236588431e-05
leaf_weight=11.999999999999998 19 19 21
leaf_count=12 19 19 21
internal_value=-7.4044e-06 -4.77349e-05 -0.000123671
internal_weight=71 59 40
internal_count=71 59 40
is_linear=0
shrinkage=0.00739068


Tree=44
num_leaves=4
num_cat=0
split_feature=44 20 20
split_gain=0.00974632 0.0121417 0.00917911
threshold=0.075953101641225082 -0.037040953309181883 1.0000000180025095e-35
decision_type=10 10 10
left_child=1 -1 -3
right_child=-2 2 -4
leaf_value=8.7170078521059765e-05 0.00016731266396188997 -0.00021208765751485505 -3.6173111074327223e-06
leaf_weight=21 11.999999999999998 20 18
leaf_count=21 12 20 18
internal_value=-6.57677e-06 -4.19711e-05 -0.00011338
internal_weight=71 59 38
internal_count=71 59 38
is_linear=0
shrinkage=0.00669442


Tree=45
num_leaves=4
num_cat=0
split_feature=28 4 20
split_gain=0.0108981 0.0140549 0.0103348
threshold=-0.020931125503739375 1.0000000180025095e-35 1.0000000180025095e-35
decision_type=8 10 8
left_child=-1 2 -2
right_child=1 -3 -4
leaf_value=5.7492122426928517e-05 -7.4285074727746856e-05 3.4288545104635408e-05 -4.2606090193126595e-06
leaf_weight=11.999999999999998 19 19 21
leaf_count=12 19 19 21
internal_value=-2.23922e-06 -1.43967e-05 -3.75351e-05
internal_weight=71 59 40
internal_count=71 59 40
is_linear=0
shrinkage=0.00217462


Tree=46
num_leaves=4
num_cat=0
split_feature=28 4 20
split_gain=0.00999314 0.0125436 0.00924476
threshold=-0.020931125503739375 1.0000000180025095e-35 1.0000000180025095e-35
decision_type=8 10 8
left_child=-1 2 -2
right_child=1 -3 -4
leaf_value=0.00017796856666563355 -0.00022735327756155392 0.00010415542119689082 -1.3378111262562992e-05
leaf_weight=11.999999999999998 19 19 21
leaf_count=12 19 19 21
internal_value=-6.82264e-06 -4.44356e-05 -0.000115058
internal_weight=71 59 40
internal_count=71 59 40
is_linear=0
shrinkage=0.0070257


Tree=47
num_leaves=5
num_cat=0
split_feature=28 16 41 46
split_gain=0.010728 0.0116709 0.00334575 0.00187259
threshold=-0.020931125503739375 -0.0041634084780617911 0.030443051552334909 0.7047000000000001
decision_type=8 8 10 8
left_child=-1 -2 3 -3
right_child=1 2 -4 -5
leaf_value=6.3468476602500002e-05 -6.3240774525844987e-05 1.3210534910415013e-05 4.0197384303234589e-05 -2.778528528898597e-05
leaf_weight=11.999999999999998 20 13.000000000000002 12.999999999999998 12.999999999999998
leaf_count=12 20 13 13 13
internal_value=-2.3796e-06 -1.57822e-05 8.54088e-06 -7.2653e-06
internal_weight=71 59 39 26
internal_count=71 59 39 26
is_linear=0
shrinkage=0.00241625


Tree=48
num_leaves=5
num_cat=0
split_feature=44 16 0 40
split_gain=0.0104439 0.00744956 0.00566329 0.00689539
threshold=0.075953101641225082 -0.0041634084780617911 0.03774928774928777 0.0060046362452933046
decision_type=10 8 8 8
left_child=1 -1 3 -3
right_child=-2 2 -4 -5
leaf_value=-7.9065295306791921e-05 9.2420147306501808e-05 -2.0784637083061727e-05 -4.8741052876110757e-05 0.0001001460029291166
leaf_weight=20 11.999999999999998 12.000000000000002 14.999999999999998 11.999999999999998
leaf_count=20 12 12 15 12
internal_value=-3.53582e-06 -2.30667e-05 5.62884e-06 3.96454e-05
internal_weight=71 59 39 24
internal_count=71 59 39 24
is_linear=0
shrinkage=0.00356861


Tree=49
num_leaves=5
num_cat=0
split_feature=28 20 20 0
split_gain=0.00979591 0.0076048 0.0130492 0.00710564
threshold=-0.020931125503739375 1.0000000180025095e-35 -0.015771499882627434 0.03774928774928777
decision_type=8 8 10 8
left_child=-1 2 -2 -3
right_child=1 3 -4 -5
leaf_value=0.00024180306478370701 4.945402490715562e-05 0.00015823576934114662 -0.00038360281011607392 -0.00012794056684838184
leaf_weight=11.999999999999998 12.000000000000002 19 13.999999999999998 13.999999999999998
leaf_count=12 12 19 14 14
internal_value=-9.23186e-06 -6.03286e-05 -0.000183642 3.67582e-05
internal_weight=71 59 26 33
internal_count=71 59 26 33
is_linear=0
shrinkage=0.00963988


Tree=50
num_leaves=4
num_cat=0
split_feature=44 20 20
split_gain=0.0104064 0.0126102 0.00894493
threshold=0.075953101641225082 -0.037040953309181883 1.0000000180025095e-35
decision_type=10 10 10
left_child=1 -1 -3
right_child=-2 2 -4
leaf_value=2.5572228405937388e-05 5.0013244793441218e-05 -6.1578981404269861e-05 -2.1553072696780252e-06
leaf_weight=21 11.999999999999998 20 18
leaf_count=21 12 20 18
internal_value=-1.86958e-06 -1.24298e-05 -3.3443e-05
internal_weight=71 59 38
internal_count=71 59 38
is_linear=0
shrinkage=0.001933


Tree=51
num_leaves=5
num_cat=0
split_feature=44 4 46 48
split_gain=0.0101081 0.00781318 0.00712899 0.00846328
threshold=0.075953101641225082 0.0078084752778028186 0.4632 0.73834511303286976
decision_type=10 10 10 8
left_child=1 2 -1 -4
right_child=-2 -3 3 -5
leaf_value=2.8423347909263568e-05 0.00010402011031766219 5.8258471279762154e-05 -1.4128796656095439e-05 -0.00014719557303145825
leaf_weight=12.999999999999998 11.999999999999998 13.999999999999998 14.999999999999998 17
leaf_count=13 12 14 15 17
internal_value=-3.92893e-06 -2.59011e-05 -5.21056e-05 -8.48508e-05
internal_weight=71 59 45 32
internal_count=71 59 45 32
is_linear=0
shrinkage=0.00408077


Tree=52
num_leaves=4
num_cat=0
split_feature=44 20 20
split_gain=0.0103234 0.0125311 0.00926149
threshold=0.075953101641225082 -0.037040953309181883 1.0000000180025095e-35
decision_type=10 10 10
left_child=1 -1 -3
right_child=-2 2 -4
leaf_value=4.4582533787702042e-05 8.7126726278339138e-05 -0.0001084706319003676 -2.6568982479469422e-06
leaf_weight=21 11.999999999999998 20 18
leaf_count=21 12 20 18
internal_value=-3.30534e-06 -2.17119e-05 -5.83695e-05
internal_weight=71 59 38
internal_count=71 59 38
is_linear=0
shrinkage=0.00338274


Tree=53
num_leaves=4
num_cat=0
split_feature=44 20 20
split_gain=0.00967446 0.0121044 0.00855709
threshold=0.075953101641225082 -0.037040953309181883 1.0000000180025095e-35
decision_type=10 10 10
left_child=1 -1 -3
right_child=-2 2 -4
leaf_value=0.00010262694418065784 0.00019610462255674357 -0.00024458734431131177 -8.1102193246971251e-06
leaf_weight=21 11.999999999999998 20 18
leaf_count=21 12 20 18
internal_value=-7.42875e-06 -4.8857e-05 -0.000132621
internal_weight=71 59 38
internal_count=71 59 38
is_linear=0
shrinkage=0.0078647


Tree=54
num_leaves=5
num_cat=0
split_feature=28 4 16 4
split_gain=0.010287 0.0128745 0.009595 0.00133197
threshold=-0.020931125503739375 1.0000000180025095e-35 -0.0041634084780617911 1.0000000180025095e-35
decision_type=8 10 8 8
left_child=-1 2 -2 -4
right_child=1 -3 3 -5
leaf_value=0.0001059918045372543 -0.00015053055461020424 6.1970407140849468e-05 1.0066962183675051e-05 -5.0043329919569388e-05
leaf_weight=11.999999999999998 14.999999999999998 19 13.000000000000002 11.999999999999998
leaf_count=12 15 19 13 12
internal_value=-3.89171e-06 -2.62575e-05 -6.81902e-05 -1.87468e-05
internal_weight=71 59 40 25
internal_count=71 59 40 25
is_linear=0
shrinkage=0.00411762


Tree=55
num_leaves=5
num_cat=0
split_feature=28 4 16 4
split_gain=0.00961899 0.0121289 0.00909243 0.00131342
threshold=-0.020931125503739375 1.0000000180025095e-35 -0.0041634084780617911 1.0000000180025095e-35
decision_type=8 10 8 8
left_child=-1 2 -2 -4
right_child=1 -3 3 -5
leaf_value=0.00013994714651963249 -0.00019986125811505761 8.2229661639444338e-05 1.4483509400152577e-05 -6.7062447475232177e-05
leaf_weight=11.999999999999998 14.999999999999998 19 13.000000000000002 11.999999999999998
leaf_count=12 15 19 13 12
internal_value=-5.21099e-06 -3.47573e-05 -9.03596e-05 -2.46051e-05
internal_weight=71 59 40 25
internal_count=71 59 40 25
is_linear=0
shrinkage=0.00562518


Tree=56
num_leaves=5
num_cat=0
split_feature=28 4 16 0
split_gain=0.00925068 0.0116646 0.00874428 0.0025405
threshold=-0.020931125503739375 1.0000000180025095e-35 -0.0041634084780617911 0.03774928774928777
decision_type=8 10 8 8
left_child=-1 2 -2 -4
right_child=1 -3 3 -5
leaf_value=0.00017698220971237708 -0.00025275174686022921 0.00010399059461669078 3.9044445359326242e-05 -0.00010726500835415577
leaf_weight=11.999999999999998 14.999999999999998 19 13.000000000000002 11.999999999999998
leaf_count=12 15 19 13 12
internal_value=-6.58907e-06 -4.39548e-05 -0.000114272 -3.11152e-05
internal_weight=71 59 40 25
internal_count=71 59 40 25
is_linear=0
shrinkage=0.00725403


Tree=57
num_leaves=4
num_cat=0
split_feature=44 20 48
split_gain=0.00897278 0.01159 0.0104098
threshold=0.075953101641225082 -0.037040953309181883 0.73834511303286976
decision_type=10 10 8
left_child=1 -1 -3
right_child=-2 2 -4
leaf_value=0.0001111413182152297 0.00020731614989599888 -2.5949943040596424e-05 -0.00031816448414310474
leaf_weight=21 11.999999999999998 23 14.999999999999998
leaf_count=21 12 23 15
internal_value=-7.68317e-06 -5.14466e-05 -0.000141352
internal_weight=71 59 38
internal_count=71 59 38
is_linear=0
shrinkage=0.00862652


Tree=58
num_leaves=4
num_cat=0
split_feature=4 46 41
split_gain=0.00992264 0.0103229 0.00870779
threshold=0.028236405807061108 0.7047000000000001 0.035157321719390851
decision_type=10 10 8
left_child=1 2 -1
right_child=-2 -3 -4
leaf_value=-3.1931038060560627e-05 4.7009631730639754e-05 -6.8224153920801942e-05 2.9345344448817967e-05
leaf_weight=20 14.999999999999998 12.999999999999998 23
leaf_count=20 15 13 23
internal_value=-2.04137e-06 -1.51891e-05 8.32834e-07
internal_weight=71 56 43
internal_count=71 56 43
is_linear=0
shrinkage=0.00214777


Tree=59
num_leaves=4
num_cat=0
split_feature=46 41 0
split_gain=0.00952347 0.0137292 0.00908359
threshold=0.7047000000000001 0.030443051552334909 -1.0000000180025095e-35
decision_type=10 8 10
left_child=1 -1 -3
right_child=-2 2 -4
leaf_value=-0.00012768037023269189 -0.00021319824658271345 4.7444529499185866e-05 0.00039122164194551961
leaf_weight=23 17 18.000000000000004 12.999999999999998
leaf_count=23 17 18 13
internal_value=-8.71525e-06 5.56155e-05 0.000191685
internal_weight=71 54 31
internal_count=71 54 31
is_linear=0
shrinkage=0.00990503


Tree=60
num_leaves=4
num_cat=0
split_feature=44 20 48
split_gain=0.0103538 0.0125917 0.0108389
threshold=0.075953101641225082 -0.037040953309181883 0.73834511303286976
decision_type=10 10 8
left_child=1 -1 -3
right_child=-2 2 -4
leaf_value=1.9356811911358981e-05 3.7774143842057468e-05 -5.3293493920498152e-06 -5.5946413472587314e-05
leaf_weight=21 11.999999999999998 23 14.999999999999998
leaf_count=21 12 23 15
internal_value=-1.43156e-06 -9.41149e-06 -2.53189e-05
internal_weight=71 59 38
internal_count=71 59 38
is_linear=0
shrinkage=0.00146439


Tree=61
num_leaves=4
num_cat=0
split_feature=28 16 4
split_gain=0.00905991 0.0126641 0.00616527
threshold=-0.015771499882627434 -0.0041634084780617911 -1.0000000180025095e-35
decision_type=8 8 10
left_child=-1 -2 -3
right_child=1 2 -4
leaf_value=0.00020326621534763064 -0.00028625076094440692 -7.6118279319977269e-05 0.00016987295069468091
leaf_weight=14.999999999999998 17 22 17
leaf_count=15 17 22 17
internal_value=-8.47502e-06 -6.52326e-05 3.10496e-05
internal_weight=71 56 39
internal_count=71 56 39
is_linear=0
shrinkage=0.00970288


Tree=62
num_leaves=5
num_cat=0
split_feature=28 4 16 0
split_gain=0.0100134 0.0124941 0.00903159 0.00231145
threshold=-0.020931125503739375 1.0000000180025095e-35 -0.0041634084780617911 0.03774928774928777
decision_type=8 10 8 8
left_child=-1 2 -2 -4
right_child=1 -3 3 -5
leaf_value=5.8006365828681868e-05 -8.9676179141760779e-05 3.2443734893255598e-05 7.6397020198547652e-06 -3.8835388913082535e-05
leaf_weight=11.999999999999998 14.999999999999998 19 13.000000000000002 11.999999999999998
leaf_count=12 15 19 13 12
internal_value=-5.60839e-06 -1.85567e-05 -4.27963e-05 -1.46454e-05
internal_weight=71 59 40 25
internal_count=71 59 40 25
is_linear=0
shrinkage=0.00241625


Tree=63
num_leaves=5
num_cat=0
split_feature=4 28 20 4
split_gain=0.00983292 0.0107217 0.00816147 0.00211228
threshold=0.028236405807061108 -0.015771499882627434 1.0000000180025095e-35 0.028236405807061108
decision_type=10 8 8 8
left_child=1 -1 -3 -4
right_child=-2 2 3 -5
leaf_value=3.4449867744338815e-05 3.8908193021804162e-05 -5.8170542468784743e-05 1.1781669630124875e-05 -2.3936823804954448e-05
leaf_weight=11.999999999999998 14.999999999999998 20.000000000000004 11.999999999999998 11.999999999999998
leaf_count=12 15 20 12 12
internal_value=-4.38516e-06 -1.59897e-05 -2.97562e-05 -6.05872e-06
internal_weight=71 56 44 24
internal_count=71 56 44 24
is_linear=0
shrinkage=0.00190436


Tree=64
num_leaves=4
num_cat=0
split_feature=28 4 20
split_gain=0.0100493 0.0127436 0.0101423
threshold=-0.020931125503739375 1.0000000180025095e-35 1.0000000180025095e-35
decision_type=8 10 8
left_child=-1 2 -2
right_child=1 -3 -4
leaf_value=4.4731245973131771e-05 -5.9716471890311022e-05 2.6152198755925641e-05 -2.8764651614667038e-06
leaf_weight=11.999999999999998 19 19 21
leaf_count=12 19 19 21
internal_value=-2.2666e-06 -1.18327e-05 -2.98861e-05
internal_weight=71 59 40
internal_count=71 59 40
is_linear=0
shrinkage=0.00178186


Tree=65
num_leaves=4
num_cat=0
split_feature=46 41 4
split_gain=0.00923936 0.0138437 0.0104324
threshold=0.7047000000000001 0.030443051552334909 -0.13592198581560286
decision_type=10 8 10
left_child=1 -1 -3
right_child=-2 2 -4
leaf_value=-0.00012732012844067527 -0.00020486337302659161 -3.8708526397027912e-05 0.00031954125230879079
leaf_weight=23 17 12.000000000000002 19
leaf_count=23 17 12 19
internal_value=-1.13594e-05 4.95166e-05 0.000180791
internal_weight=71 54 31
internal_count=71 54 31
is_linear=0
shrinkage=0.00951629


Tree=66
num_leaves=4
num_cat=0
split_feature=46 44 46
split_gain=0.0092151 0.0115862 0.00753293
threshold=0.7047000000000001 0.049198652946219973 0.56710000000000027
decision_type=10 8 8
left_child=1 -1 -3
right_child=-2 2 -4
leaf_value=-4.2303473596310394e-05 -7.2927445646141451e-05 0.00012158755951959403 1.5657401994977785e-05
leaf_weight=22 17 12.999999999999998 19
leaf_count=22 17 13 19
internal_value=-4.10576e-06 1.75454e-05 5.87167e-05
internal_weight=71 54 32
internal_count=71 54 32
is_linear=0
shrinkage=0.00338902


Tree=67
num_leaves=4
num_cat=0
split_feature=46 44 4
split_gain=0.00887971 0.0109164 0.00840062
threshold=0.7047000000000001 0.049198652946219973 -0.13592198581560286
decision_type=10 8 10
left_child=1 -1 -3
right_child=-2 2 -4
leaf_value=-0.0001310773909116615 -0.00022971514635921481 -4.365391014042001e-05 0.00032037216317104891
leaf_weight=22 17 11.999999999999998 20
leaf_count=22 17 12 20
internal_value=-1.27866e-05 5.54578e-05 0.000183782
internal_weight=71 54 32
internal_count=71 54 32
is_linear=0
shrinkage=0.0108822


Tree=68
num_leaves=4
num_cat=0
split_feature=4 46 41
split_gain=0.00860218 0.00945199 0.00752347
threshold=0.028236405807061108 0.7047000000000001 0.035157321719390851
decision_type=10 10 8
left_child=1 2 -1
right_child=-2 -3 -4
leaf_value=-0.00016517263095162704 0.00023909477854003951 -0.00036236822110001998 0.00015010034433391394
leaf_weight=20 14.999999999999998 12.999999999999998 23
leaf_count=20 15 13 23
internal_value=-1.36998e-05 -8.14631e-05 3.39606e-06
internal_weight=71 56 43
internal_count=71 56 43
is_linear=0
shrinkage=0.0118885


Tree=69
num_leaves=4
num_cat=0
split_feature=4 24 20
split_gain=0.00943035 0.00542763 0.0062963
threshold=0.028236405807061108 -1.0000000180025095e-35 0.032213718820861666
decision_type=10 8 8
left_child=1 -1 -3
right_child=-2 2 -4
leaf_value=1.0865874043662367e-05 3.4893730330761897e-05 -4.9753325290151013e-05 -5.7075850143491108e-06
leaf_weight=19 14.999999999999998 15.000000000000002 21.999999999999996
leaf_count=19 15 15 22
internal_value=-1.99458e-06 -1.18824e-05 -2.35746e-05
internal_weight=71 56 37
internal_count=71 56 37
is_linear=0
shrinkage=0.00165685


Tree=70
num_leaves=4
num_cat=0
split_feature=28 16 0
split_gain=0.00956197 0.0103292 0.00581501
threshold=-0.020931125503739375 -0.0041634084780617911 0.03774928774928777
decision_type=8 8 8
left_child=-1 -2 -3
right_child=1 2 -4
leaf_value=7.9131099972310946e-05 -8.0158174012907356e-05 4.2706835229625087e-05 -3.7259818527675296e-05
leaf_weight=11.999999999999998 20 23 15.999999999999998
leaf_count=12 20 23 16
internal_value=-3.75669e-06 -2.06282e-05 9.88038e-06
internal_weight=71 59 39
internal_count=71 59 39
is_linear=0
shrinkage=0.00322166


Tree=71
num_leaves=4
num_cat=0
split_feature=4 46 44
split_gain=0.00844626 0.00905952 0.00613154
threshold=0.028236405807061108 0.7047000000000001 0.049198652946219973
decision_type=10 10 8
left_child=1 2 -1
right_child=-2 -3 -4
leaf_value=-0.00010773007544539243 0.00017874842333192456 -0.00026828079311924994 0.00010648907464692942
leaf_weight=21 14.999999999999998 12.999999999999998 22
leaf_count=21 15 13 22
internal_value=-1.01953e-05 -6.08433e-05 1.82087e-06
internal_weight=71 56 43
internal_count=71 56 43
is_linear=0
shrinkage=0.00896734


Tree=72
num_leaves=4
num_cat=0
split_feature=28 16 4
split_gain=0.00898631 0.0123463 0.00577328
threshold=-0.015771499882627434 -0.0041634084780617911 -1.0000000180025095e-35
decision_type=8 8 10
left_child=-1 -2 -3
right_child=1 2 -4
leaf_value=0.00026488735204786737 -0.00037810627049773545 -0.00010060369342104632 0.00021457592412822273
leaf_weight=14.999999999999998 17 22 17
leaf_count=15 17 22 17
internal_value=-1.4323e-05 -8.9166e-05 3.6704e-05
internal_weight=71 56 39
internal_count=71 56 39
is_linear=0
shrinkage=0.012847


Tree=73
num_leaves=4
num_cat=0
split_feature=44 20 48
split_gain=0.00902166 0.0114851 0.0106877
threshold=0.075953101641225082 -0.037040953309181883 0.73834511303286976
decision_type=10 10 8
left_child=1 -1 -3
right_child=-2 2 -4
leaf_value=2.4113737214551959e-05 4.5986989163032892e-05 -6.0054091913994295e-06 -7.235174497213037e-05
leaf_weight=21 11.999999999999998 23 14.999999999999998
leaf_count=21 12 23 15
internal_value=-2.31984e-06 -1.21527e-05 -3.22068e-05
internal_weight=71 59 38
internal_count=71 59 38
is_linear=0
shrinkage=0.001933


Tree=74
num_leaves=4
num_cat=0
split_feature=28 16 0
split_gain=0.00877427 0.0120077 0.00567503
threshold=-0.015771499882627434 -0.0041634084780617911 0.03774928774928777
decision_type=8 8 8
left_child=-1 -2 -3
right_child=1 2 -4
leaf_value=0.00018105651787246081 -0.00025807719169708865 0.00011436939787092077 -0.00010355274063043791
leaf_weight=14.999999999999998 17 23 15.999999999999998
leaf_count=15 17 23 16
internal_value=-9.7986e-06 -6.09582e-05 2.49113e-05
internal_weight=71 56 39
internal_count=71 56 39
is_linear=0
shrinkage=0.00888709


Tree=75
num_leaves=4
num_cat=0
split_feature=4 46 8
split_gain=0.008975 0.00895787 0.00475128
threshold=0.028236405807061108 0.7047000000000001 0.0078084752778028186
decision_type=10 10 8
left_child=1 2 -1
right_child=-2 -3 -4
leaf_value=-2.2609026612975088e-05 4.5172475710895162e-05 -6.585216130739716e-05 2.3582936206464572e-05
leaf_weight=22.000000000000004 14.999999999999998 12.999999999999998 20.999999999999996
leaf_count=22 15 13 21
internal_value=-2.53699e-06 -1.53256e-05 -3.8024e-08
internal_weight=71 56 43
internal_count=71 56 43
is_linear=0
shrinkage=0.00219659


Tree=76
num_leaves=5
num_cat=0
split_feature=28 4 16 46
split_gain=0.00859382 0.0108416 0.00798685 0.00194841
threshold=-0.020931125503739375 1.0000000180025095e-35 -0.0041634084780617911 0.58840000000000015
decision_type=8 10 8 10
left_child=-1 2 -2 -4
right_child=1 -3 3 -5
leaf_value=0.00025828543670991717 -0.00037288480148752801 0.00015084346093032966 5.2455315234132158e-05 -0.00014329200633642628
leaf_weight=11.999999999999998 14.999999999999998 19 12.000000000000002 12.999999999999998
leaf_count=12 15 19 12 13
internal_value=-1.20547e-05 -6.70838e-05 -0.000170665 -4.9228e-05
internal_weight=71 59 40 25
internal_count=71 59 40 25
is_linear=0
shrinkage=0.0110837


Tree=77
num_leaves=5
num_cat=0
split_feature=28 4 46 48
split_gain=0.00857403 0.0108166 0.00517682 0.00535173
threshold=-0.020931125503739375 1.0000000180025095e-35 0.66510000000000014 0.21365737563877335
decision_type=8 10 10 10
left_child=-1 2 3 -2
right_child=1 -3 -4 -5
leaf_value=0.00015043066037768017 2.6122727216499531e-05 8.7864108688215516e-05 -0.0002116873084936589 -0.00015433338043999411
leaf_weight=11.999999999999998 16.000000000000004 19 11.999999999999998 11.999999999999998
leaf_count=12 16 19 12 12
internal_value=-6.99476e-06 -3.90395e-05 -9.93571e-05 -5.11608e-05
internal_weight=71 59 40 28
internal_count=71 59 40 28
is_linear=0
shrinkage=0.00646173


Tree=78
num_leaves=5
num_cat=0
split_feature=4 28 16 0
split_gain=0.00935085 0.0102257 0.0111615 0.00277505
threshold=0.028236405807061108 -0.015771499882627434 -0.0041634084780617911 1.0000000180025095e-35
decision_type=10 8 8 8
left_child=1 -1 -3 -4
right_child=-2 2 3 -5
leaf_value=2.3267005377983885e-05 2.604971359366534e-05 -4.4975066192930513e-05 1.1085184770365007e-05 -1.3519960603706299e-05
leaf_weight=11.999999999999998 14.999999999999998 14.999999999999998 12.000000000000004 17
leaf_count=12 15 15 12 17
internal_value=-1.42119e-06 -8.78473e-06 -1.75328e-05 -3.32837e-06
internal_weight=71 56 44 29
internal_count=71 56 44 29
is_linear=0
shrinkage=0.0012391


Tree=79
num_leaves=5
num_cat=0
split_feature=44 4 46 47
split_gain=0.00872918 0.00735619 0.00641528 0.0069075
threshold=0.075953101641225082 0.0078084752778028186 0.4632 0.33297433133683002
decision_type=10 10 10 10
left_child=1 2 -1 -4
right_child=-2 -3 3 -5
leaf_value=1.3674100133899861e-05 5.0396482999073676e-05 2.9831645900342603e-05 -7.0711481415092992e-05 -7.0580917191474739e-06
leaf_weight=12.999999999999998 11.999999999999998 13.999999999999998 18 13.999999999999998
leaf_count=13 12 14 18 14
internal_value=-2.4005e-06 -1.31475e-05 -2.65301e-05 -4.28791e-05
internal_weight=71 59 45 32
internal_count=71 59 45 32
is_linear=0
shrinkage=0.00214777


Tree=80
num_leaves=4
num_cat=0
split_feature=44 20 48
split_gain=0.00818007 0.0110173 0.0103439
threshold=0.075953101641225082 -0.037040953309181883 0.73834511303286976
decision_type=10 10 8
left_child=1 -1 -3
right_child=-2 2 -4
leaf_value=0.00016155329132117702 0.00029465023594204626 -3.5562390954951948e-05 -0.00047339724863918007
leaf_weight=21 11.999999999999998 23 14.999999999999998
leaf_count=21 12 23 15
internal_value=-1.39069e-05 -7.67165e-05 -0.000208473
internal_weight=71 59 38
internal_count=71 59 38
is_linear=0
shrinkage=0.0129666


Tree=81
num_leaves=4
num_cat=0
split_feature=28 4 20
split_gain=0.00841548 0.0111891 0.00827015
threshold=-0.015771499882627434 1.0000000180025095e-35 1.0000000180025095e-35
decision_type=8 10 8
left_child=-1 2 -2
right_child=1 -3 -4
leaf_value=0.00030094611691801256 -0.00048157882037660045 0.00020848346798494732 -3.6339619641050796e-05
leaf_weight=14.999999999999998 18 18 20
leaf_count=15 18 18 20
internal_value=-1.58414e-05 -0.000100759 -0.000247337
internal_weight=71 56 38
internal_count=71 56 38
is_linear=0
shrinkage=0.0150623


Tree=82
num_leaves=4
num_cat=0
split_feature=4 46 41
split_gain=0.00864864 0.00908332 0.0077014
threshold=0.028236405807061108 0.7047000000000001 0.035157321719390851
decision_type=10 10 8
left_child=1 2 -1
right_child=-2 -3 -4
leaf_value=-2.7439788782890752e-05 3.9026748211176693e-05 -5.8008387520096332e-05 2.4424586736484463e-05
leaf_weight=20 14.999999999999998 12.999999999999998 23
leaf_count=20 15 13 23
internal_value=-2.18703e-06 -1.32346e-05 2.90941e-07
internal_weight=71 56 43
internal_count=71 56 43
is_linear=0
shrinkage=0.001933


Tree=83
num_leaves=4
num_cat=0
split_feature=28 4 20
split_gain=0.00819053 0.0101503 0.00770158
threshold=-0.020931125503739375 1.0000000180025095e-35 1.0000000180025095e-35
decision_type=8 10 8
left_child=-1 2 -2
right_child=1 -3 -4
leaf_value=0.00030450803716217323 -0.00039470135194289758 0.0001756830311107888 -2.2975517233839746e-05
leaf_weight=11.999999999999998 19 19 21
leaf_count=12 19 19 21
internal_value=-1.38952e-05 -7.87091e-05 -0.000199625
internal_weight=71 59 40
internal_count=71 59 40
is_linear=0
shrinkage=0.0133718


Tree=84
num_leaves=4
num_cat=0
split_feature=44 20 48
split_gain=0.00903063 0.0114191 0.0104237
threshold=0.075953101641225082 -0.037040953309181883 0.73834511303286976
decision_type=10 10 8
left_child=1 -1 -3
right_child=-2 2 -4
leaf_value=2.2609219383254503e-05 4.3148826015789393e-05 -5.6543112680500029e-06 -6.6808372249948099e-05
leaf_weight=21 11.999999999999998 23 14.999999999999998
leaf_count=21 12 23 15
internal_value=-1.96009e-06 -1.11421e-05 -2.98054e-05
internal_weight=71 59 38
internal_count=71 59 38
is_linear=0
shrinkage=0.00180413


Tree=85
num_leaves=4
num_cat=0
split_feature=44 20 48
split_gain=0.00928748 0.0118511 0.0109106
threshold=0.075953101641225082 -0.037040953309181883 0.73834511303286976
decision_type=10 10 8
left_child=1 -1 -3
right_child=-2 2 -4
leaf_value=2.4706942868411826e-05 4.6857117501671284e-05 -6.0312609187929822e-06 -7.3065369242729795e-05
leaf_weight=21 11.999999999999998 23 14.999999999999998
leaf_count=21 12 23 15
internal_value=-2.15647e-06 -1.21331e-05 -3.25042e-05
internal_weight=71 59 38
internal_count=71 59 38
is_linear=0
shrinkage=0.001933


Tree=86
num_leaves=5
num_cat=0
split_feature=28 4 16 46
split_gain=0.00799384 0.0100115 0.00761019 0.00175426
threshold=-0.020931125503739375 1.0000000180025095e-35 -0.0041634084780617911 0.58840000000000015
decision_type=8 10 8 10
left_child=-1 2 -2 -4
right_child=1 -3 3 -5
leaf_value=0.0002803269966032349 -0.00040639911742088882 0.00016294737186829824 5.7325895510665761e-05 -0.00015152001513861577
leaf_weight=11.999999999999998 14.999999999999998 19 12.000000000000002 12.999999999999998
leaf_count=12 15 19 12 13
internal_value=-1.28449e-05 -7.25233e-05 -0.000184446 -5.11555e-05
internal_weight=71 59 40 25
internal_count=71 59 40 25
is_linear=0
shrinkage=0.0124627


Tree=87
num_leaves=5
num_cat=0
split_feature=28 4 16 0
split_gain=0.00839087 0.0107355 0.00805374 0.00260635
threshold=-0.020931125503739375 1.0000000180025095e-35 -0.0041634084780617911 0.03774928774928777
decision_type=8 10 8 8
left_child=-1 2 -2 -4
right_child=1 -3 3 -5
leaf_value=5.9875396171483198e-05 -8.729874956506631e-05 3.5337161371121148e-05 1.437257327844769e-05 -3.8723040503709858e-05
leaf_weight=11.999999999999998 14.999999999999998 19 13.000000000000002 11.999999999999998
leaf_count=12 15 19 13 12
internal_value=-2.76294e-06 -1.55134e-05 -3.96829e-05 -1.10886e-05
internal_weight=71 59 40 25
internal_count=71 59 40 25
is_linear=0
shrinkage=0.00259899


Tree=88
num_leaves=5
num_cat=0
split_feature=44 4 24 16
split_gain=0.00947979 0.00682624 0.00434444 0.007748
threshold=0.075953101641225082 0.0078084752778028186 -1.0000000180025095e-35 1.0000000180025095e-35
decision_type=10 10 8 8
left_child=1 2 -1 -4
right_child=-2 -3 3 -5
leaf_value=2.7694981283487047e-06 4.3104590474581088e-05 2.2798115672869125e-05 -6.8427076294070847e-05 -1.0747352311530925e-05
leaf_weight=14.999999999999998 11.999999999999998 13.999999999999998 12.000000000000004 18
leaf_count=15 12 14 12 18
internal_value=-1.91227e-06 -1.10753e-05 -2.1623e-05 -3.38332e-05
internal_weight=71 59 45 30
internal_count=71 59 45 30
is_linear=0
shrinkage=0.00175727


Tree=89
num_leaves=5
num_cat=0
split_feature=28 16 41 46
split_gain=0.00982798 0.0110952 0.00343749 0.00205063
threshold=-0.020931125503739375 -0.0041634084780617911 0.030443051552334909 0.7047000000000001
decision_type=8 8 10 8
left_child=-1 -2 3 -3
right_child=1 2 -4 -5
leaf_value=2.8307343808401821e-05 -2.9163920569003247e-05 6.3159411387062958e-06 1.8872177210622063e-05 -1.3872459794748501e-05
leaf_weight=11.999999999999998 20 13.000000000000002 12.999999999999998 12.999999999999998
leaf_count=12 20 13 13 13
internal_value=-1.35136e-06 -7.38822e-06 3.77189e-06 -3.76787e-06
internal_weight=71 59 39 26
internal_count=71 59 39 26
is_linear=0
shrinkage=0.00113706


Tree=90
num_leaves=4
num_cat=0
split_feature=44 20 48
split_gain=0.00993768 0.0121437 0.0111873
threshold=0.075953101641225082 -0.037040953309181883 0.73834511303286976
decision_type=10 10 8
left_child=1 -1 -3
right_child=-2 2 -4
leaf_value=1.6463253364231865e-05 3.2281993668614423e-05 -4.2745405604600211e-06 -4.9527012322371004e-05
leaf_weight=21 11.999999999999998 23 14.999999999999998
leaf_count=21 12 23 15
internal_value=-1.51833e-06 -8.39816e-06 -2.21454e-05
internal_weight=71 59 38
internal_count=71 59 38
is_linear=0
shrinkage=0.00128866


Tree=91
num_leaves=5
num_cat=0
split_feature=44 4 46 41
split_gain=0.00812773 0.00645952 0.00601833 0.00709853
threshold=0.075953101641225082 0.0078084752778028186 0.66510000000000014 0.066612525131262437
decision_type=10 10 10 8
left_child=1 2 3 -1
right_child=-2 -3 -4 -5
leaf_value=-0.00023524916472333874 0.00028718207432054232 0.00016314229196489569 -0.00036608924941489336 0.00014806528768991821
leaf_weight=16.000000000000004 11.999999999999998 13.999999999999998 13.999999999999998 14.999999999999998
leaf_count=16 12 14 14 15
internal_value=-1.31277e-05 -7.42586e-05 -0.000148183 -4.96774e-05
internal_weight=71 59 45 31
internal_count=71 59 45 31
is_linear=0
shrinkage=0.0126606


Tree=92
num_leaves=5
num_cat=0
split_feature=28 4 16 0
split_gain=0.00796963 0.00978236 0.00750767 0.00277075
threshold=-0.020931125503739375 1.0000000180025095e-35 -0.0041634084780617911 0.03774928774928777
decision_type=8 10 8 8
left_child=-1 2 -2 -4
right_child=1 -3 3 -5
leaf_value=0.0002693317456619451 -0.00038790084390335182 0.00015435404668482332 7.2502179924259022e-05 -0.00017996810945220177
leaf_weight=11.999999999999998 14.999999999999998 19 13.000000000000002 11.999999999999998
leaf_count=12 15 19 13 12
internal_value=-1.21859e-05 -6.9492e-05 -0.00017589 -4.85697e-05
internal_weight=71 59 40 25
internal_count=71 59 40 25
is_linear=0
shrinkage=0.0119855


Tree=93
num_leaves=4
num_cat=0
split_feature=46 41 4
split_gain=0.00796234 0.0121552 0.00942205
threshold=0.7047000000000001 0.030443051552334909 -0.13592198581560286
decision_type=10 8 10
left_child=1 -1 -3
right_child=-2 2 -4
leaf_value=-0.00014797244455506221 -0.0002358138821835077 -4.8077973290254903e-05 0.00037642509053903634
leaf_weight=23 17 12.000000000000002 19
leaf_count=23 17 12 19
internal_value=-1.18293e-05 5.86322e-05 0.00021201
internal_weight=71 54 31
internal_count=71 54 31
is_linear=0
shrinkage=0.0118656


Tree=94
num_leaves=4
num_cat=0
split_feature=28 4 20
split_gain=0.00766438 0.010014 0.00761258
threshold=-0.015771499882627434 1.0000000180025095e-35 1.0000000180025095e-35
decision_type=8 10 8
left_child=-1 2 -2
right_child=1 -3 -4
leaf_value=0.00022406558038925222 -0.0003577487762033186 0.00015331329390025987 -2.4929087762571602e-05
leaf_weight=14.999999999999998 18 18 20
leaf_count=15 18 18 20
internal_value=-1.14739e-05 -7.46147e-05 -0.000182654
internal_weight=71 56 38
internal_count=71 56 38
is_linear=0
shrinkage=0.0117352


Tree=95
num_leaves=4
num_cat=0
split_feature=20 20 4
split_gain=0.00753868 0.0122569 0.00448239
threshold=-0.020931125503739375 1.0000000180025095e-35 -0.0060004110876203378
decision_type=8 8 10
left_child=-1 -2 -3
right_child=1 2 -4
leaf_value=0.00028474234011257221 -0.0003348659853639861 -7.4591742677416044e-05 0.00020439440222282858
leaf_weight=11.999999999999998 20 20 19
leaf_count=12 20 20 19
internal_value=-1.24741e-05 -7.29773e-05 6.12453e-05
internal_weight=71 59 39
internal_count=71 59 39
is_linear=0
shrinkage=0.0130106


Tree=96
num_leaves=4
num_cat=0
split_feature=46 28 48
split_gain=0.00766553 0.00965744 0.00500144
threshold=0.7047000000000001 -0.037040953309181883 0.73834511303286976
decision_type=10 10 10
left_child=1 -1 -3
right_child=-2 2 -4
leaf_value=0.00026046057533341926 -0.00022705567455004585 4.1807016088446217e-05 -0.00025421414486439197
leaf_weight=20 17 22 11.999999999999998
leaf_count=20 17 22 12
internal_value=-1.09687e-05 5.70073e-05 -6.25895e-05
internal_weight=71 54 34
internal_count=71 54 34
is_linear=0
shrinkage=0.0116667


Tree=97
num_leaves=5
num_cat=0
split_feature=44 28 0 16
split_gain=0.00863228 0.00608377 0.0131788 0.00694536
threshold=0.075953101641225082 -0.0068849807221900696 0.0406419298641938 -0.0041634084780617911
decision_type=10 10 8 8
left_child=1 2 -1 -3
right_child=-2 3 -4 -5
leaf_value=3.0300006209079394e-05 3.8995868054825085e-05 -5.8583971118438599e-05 -3.7142357021566734e-05 -3.0092796146422438e-06
leaf_weight=21 11.999999999999998 11.999999999999998 12.999999999999998 13.000000000000002
leaf_count=21 12 12 13 13
internal_value=-1.7004e-06 -9.98431e-06 4.50159e-06 -2.9701e-05
internal_weight=71 59 34 25
internal_count=71 59 34 25
is_linear=0
shrinkage=0.00166478


Tree=98
num_leaves=4
num_cat=0
split_feature=28 4 20
split_gain=0.00835766 0.0102698 0.00777806
threshold=-0.020931125503739375 1.0000000180025095e-35 1.0000000180025095e-35
decision_type=8 10 8
left_child=-1 2 -2
right_child=1 -3 -4
leaf_value=4.2318874625062943e-05 -5.446795974636824e-05 2.4298307399837725e-05 -3.1661513438221154e-06
leaf_weight=11.999999999999998 19 19 21
leaf_count=12 19 19 21
internal_value=-1.85141e-06 -1.08426e-05 -2.75454e-05
internal_weight=71 59 40
internal_count=71 59 40
is_linear=0
shrinkage=0.00183635


Tree=99
num_leaves=5
num_cat=0
split_feature=44 28 0 16
split_gain=0.00856434 0.00588614 0.0134072 0.00694078
threshold=0.075953101641225082 -0.0068849807221900696 0.0406419298641938 -0.0041634084780617911
decision_type=10 10 8 8
left_child=1 2 -1 -3
right_child=-2 3 -4 -5
leaf_value=2.7962304482837551e-05 3.5829213981886672e-05 -5.3810957663710914e-05 -3.4865828341572247e-05 -2.4987784924279922e-06
leaf_weight=21 11.999999999999998 11.999999999999998 12.999999999999998 13.000000000000002
leaf_count=21 12 12 13 13
internal_value=-1.61003e-06 -9.23099e-06 3.92904e-06 -2.71432e-05
internal_weight=71 59 34 25
internal_count=71 59 34 25
is_linear=0
shrinkage=0.00153761


Tree=100
num_leaves=5
num_cat=0
split_feature=20 20 0 36
split_gain=0.00744913 0.0119967 0.00481485 0.00570812
threshold=-0.020931125503739375 1.0000000180025095e-35 -0.13592198581560286 1.0000000180025095e-35
decision_type=8 8 10 10
left_child=-1 -2 -3 -4
right_child=1 2 3 -5
leaf_value=0.00034162967348344006 -0.00039995076298462404 -0.00017366081605746326 0.00041157983982850727 -5.4709673367351496e-05
leaf_weight=11.999999999999998 20 12.999999999999998 14.000000000000002 11.999999999999998
leaf_count=12 20 13 14 12
internal_value=-1.48091e-05 -8.73684e-05 7.28347e-05 0.000196226
internal_weight=71 59 39 26
internal_count=71 59 39 26
is_linear=0
shrinkage=0.0156965


Tree=101
num_leaves=4
num_cat=0
split_feature=28 16 0
split_gain=0.00744156 0.0169817 0.00705166
threshold=-0.0068849807221900696 -0.0041634084780617911 0.03774928774928777
decision_type=8 8 8
left_child=-1 -2 -3
right_child=1 2 -4
leaf_value=0.00020549061582721489 -0.00051299335612615721 0.00022730609504651914 -0.00016191970636092104
leaf_weight=21 13.999999999999998 20 15.999999999999998
leaf_count=21 14 20 16
internal_value=-1.27875e-05 -0.00010453 5.42256e-05
internal_weight=71 50 36
internal_count=71 50 36
is_linear=0
shrinkage=0.0138209


Tree=102
num_leaves=4
num_cat=0
split_feature=28 4 20
split_gain=0.00792299 0.0101417 0.00753266
threshold=-0.020931125503739375 1.0000000180025095e-35 1.0000000180025095e-35
decision_type=8 10 8
left_child=-1 2 -2
right_child=1 -3 -4
leaf_value=5.4181364346258738e-05 -7.0625758477994179e-05 3.2024092262638925e-05 -4.1961965576419517e-06
leaf_weight=11.999999999999998 19 19 21
leaf_count=12 19 19 21
internal_value=-2.40565e-06 -1.39246e-05 -3.57646e-05
internal_weight=71 59 40
internal_count=71 59 40
is_linear=0
shrinkage=0.00241625


Tree=103
num_leaves=5
num_cat=0
split_feature=44 20 47 0
split_gain=0.0079715 0.0107388 0.00824707 0.000732562
threshold=0.075953101641225082 -0.037040953309181883 0.032773501578502791 -0.0031437153470477148
decision_type=10 10 10 10
left_child=1 -1 -3 -4
right_child=-2 2 3 -5
leaf_value=2.6556710935897881e-05 4.8315772791358128e-05 -8.0536101622006006e-05 -1.8413320488770171e-06 -2.4752973131731853e-05
leaf_weight=21 11.999999999999998 11.999999999999998 13.999999999999998 12.000000000000002
leaf_count=21 12 12 14 12
internal_value=-2.13757e-06 -1.24079e-05 -3.39544e-05 -1.24356e-05
internal_weight=71 59 38 26
internal_count=71 59 38 26
is_linear=0
shrinkage=0.00214777


Tree=104
num_leaves=5
num_cat=0
split_feature=44 4 46 41
split_gain=0.00813872 0.00646673 0.00588777 0.00695546
threshold=0.075953101641225082 0.0078084752778028186 0.66510000000000014 0.066612525131262437
decision_type=10 10 10 8
left_child=1 2 3 -1
right_child=-2 -3 -4 -5
leaf_value=-3.9722982656070355e-05 4.8815328186160701e-05 2.7753909675768391e-05 -6.1652995658763009e-05 2.4644610299432203e-05
leaf_weight=16.000000000000004 11.999999999999998 13.999999999999998 13.999999999999998 14.999999999999998
leaf_count=16 12 14 14 15
internal_value=-2.16452e-06 -1.2542e-05 -2.50898e-05 -8.56091e-06
internal_weight=71 59 45 31
internal_count=71 59 45 31
is_linear=0
shrinkage=0.00214777


Tree=105
num_leaves=4
num_cat=0
split_feature=44 20 48
split_gain=0.00888477 0.0113832 0.0102355
threshold=0.075953101641225082 -0.037040953309181883 0.73834511303286976
decision_type=10 10 8
left_child=1 -1 -3
right_child=-2 2 -4
leaf_value=2.1186262826570657e-05 4.1697840696956397e-05 -7.7190346718537451e-06 -6.9402439826163998e-05
leaf_weight=21 11.999999999999998 23 14.999999999999998
leaf_count=21 12 23 15
internal_value=-3.84299e-06 -1.31129e-05 -3.20792e-05
internal_weight=71 59 38
internal_count=71 59 38
is_linear=0
shrinkage=0.00183635


Tree=106
num_leaves=4
num_cat=0
split_feature=44 20 48
split_gain=0.00913445 0.011336 0.0104138
threshold=0.075953101641225082 -0.037040953309181883 0.73834511303286976
decision_type=10 10 8
left_child=1 -1 -3
right_child=-2 2 -4
leaf_value=1.1891465454435857e-05 2.3127410823098763e-05 -3.1534238619407472e-06 -3.5899011469532419e-05
leaf_weight=21 11.999999999999998 23 14.999999999999998
leaf_count=21 12 23 15
internal_value=-1.17654e-06 -6.12361e-06 -1.60854e-05
internal_weight=71 59 38
internal_count=71 59 38
is_linear=0
shrinkage=0.000966498


Tree=107
num_leaves=4
num_cat=0
split_feature=28 40 20
split_gain=0.00895936 0.00706426 0.00937821
threshold=-0.020931125503739375 0.02181153816030305 1.0000000180025095e-35
decision_type=8 8 8
left_child=-1 2 -2
right_child=1 -3 -4
leaf_value=3.2528445936357933e-05 -3.7246315356270112e-05 1.0855963745390397e-05 7.7934792840741745e-06
leaf_weight=11.999999999999998 23 22 13.999999999999998
leaf_count=12 23 22 14
internal_value=-1.6536e-06 -8.61141e-06 -2.01954e-05
internal_weight=71 59 37
internal_count=71 59 37
is_linear=0
shrinkage=0.00137254


Tree=108
num_leaves=4
num_cat=0
split_feature=44 20 48
split_gain=0.00902762 0.0116428 0.0103178
threshold=0.075953101641225082 -0.037040953309181883 0.73834511303286976
decision_type=10 10 8
left_child=1 -1 -3
right_child=-2 2 -4
leaf_value=1.8796979453155626e-05 3.5446432353792375e-05 -5.0194694376429158e-06 -5.5164891462988629e-05
leaf_weight=21 11.999999999999998 23 14.999999999999998
leaf_count=21 12 23 15
internal_value=-1.72499e-06 -9.29126e-06 -2.4823e-05
internal_weight=71 59 38
internal_count=71 59 38
is_linear=0
shrinkage=0.00148692


Tree=109
num_leaves=4
num_cat=0
split_feature=46 41 4
split_gain=0.00771253 0.012082 0.00924061
threshold=0.7047000000000001 0.030443051552334909 -0.13592198581560286
decision_type=10 8 10
left_child=1 -1 -3
right_child=-2 2 -4
leaf_value=-0.00021076561235889419 -0.00032909019687895144 -6.7703935190426373e-05 0.00052583521637246486
leaf_weight=23 17 12.000000000000002 19
leaf_count=23 17 12 19
internal_value=-1.78549e-05 8.00528e-05 0.00029595
internal_weight=71 54 31
internal_count=71 54 31
is_linear=0
shrinkage=0.0167526


Tree=110
num_leaves=5
num_cat=0
split_feature=28 4 16 46
split_gain=0.00949225 0.0120142 0.00907563 0.00208059
threshold=-0.020931125503739375 1.0000000180025095e-35 -0.0041634084780617911 0.58840000000000015
decision_type=8 10 8 10
left_child=-1 2 -2 -4
right_child=1 -3 3 -5
leaf_value=2.4822964373527189e-05 -3.6359528624902175e-05 1.4492908675152342e-05 4.9533996179426609e-06 -1.3613900274701535e-05
leaf_weight=11.999999999999998 14.999999999999998 19 12.000000000000002 12.999999999999998
leaf_count=12 15 19 12 13
internal_value=-1.25646e-06 -6.56485e-06 -1.65733e-05 -4.69193e-06
internal_weight=71 59 40 25
internal_count=71 59 40 25
is_linear=0
shrinkage=0.00101737


Tree=111
num_leaves=5
num_cat=0
split_feature=44 4 46 48
split_gain=0.00948547 0.00716547 0.0064498 0.00855563
threshold=0.075953101641225082 0.0078084752778028186 0.4632 0.73834511303286976
decision_type=10 10 10 8
left_child=1 2 -1 -4
right_child=-2 -3 3 -5
leaf_value=7.9992557529486881e-06 3.1480483237188265e-05 1.7187321536407752e-05 -3.5694138674031065e-06 -4.5818176651688626e-05
leaf_weight=12.999999999999998 11.999999999999998 13.999999999999998 14.999999999999998 17
leaf_count=13 12 14 15 17
internal_value=-1.54168e-06 -8.26324e-06 -1.6188e-05 -2.60236e-05
internal_weight=71 59 45 32
internal_count=71 59 45 32
is_linear=0
shrinkage=0.00128866


Tree=112
num_leaves=4
num_cat=0
split_feature=28 4 20
split_gain=0.00770032 0.0095151 0.00728149
threshold=-0.020931125503739375 1.0000000180025095e-35 1.0000000180025095e-35
decision_type=8 10 8
left_child=-1 2 -2
right_child=1 -3 -4
leaf_value=0.00035581374850621184 -0.00046366465207897114 0.0002044758200117936 -2.6999910058850609e-05
leaf_weight=11.999999999999998 19 19 21
leaf_count=12 19 19 21
internal_value=-1.71547e-05 -9.30777e-05 -0.000234512
internal_weight=71 59 40
internal_count=71 59 40
is_linear=0
shrinkage=0.0161543


Tree=113
num_leaves=4
num_cat=0
split_feature=28 4 20
split_gain=0.00914599 0.0113353 0.00860173
threshold=-0.020931125503739375 1.0000000180025095e-35 1.0000000180025095e-35
decision_type=8 10 8
left_child=-1 2 -2
right_child=1 -3 -4
leaf_value=3.3091216172172189e-05 -4.3203419014423656e-05 1.9036577036264842e-05 -2.6404605031667261e-06
leaf_weight=11.999999999999998 19 19 21
leaf_count=12 19 19 21
internal_value=-1.65066e-06 -8.72237e-06 -2.19161e-05
internal_weight=71 59 40
internal_count=71 59 40
is_linear=0
shrinkage=0.00138071


Tree=114
num_leaves=4
num_cat=0
split_feature=44 20 48
split_gain=0.00836696 0.0111845 0.010522
threshold=0.075953101641225082 -0.037040953309181883 0.73834511303286976
decision_type=10 10 8
left_child=1 -1 -3
right_child=-2 2 -4
leaf_value=2.4102039413162225e-05 4.4303758929168952e-05 -5.4790860507077229e-06 -7.1308832502006583e-05
leaf_weight=21 11.999999999999998 23 14.999999999999998
leaf_count=21 12 23 15
internal_value=-2.21696e-06 -1.16866e-05 -3.14766e-05
internal_weight=71 59 38
internal_count=71 59 38
is_linear=0
shrinkage=0.001933


Tree=115
num_leaves=5
num_cat=0
split_feature=28 46 47 0
split_gain=0.00759192 0.00615209 0.00533498 0.00236246
threshold=-0.020931125503739375 0.7047000000000001 0.69196183451832483 0.03774928774928777
decision_type=8 10 8 8
left_child=-1 2 -2 -4
right_child=1 -3 3 -5
leaf_value=0.00036229832794897434 -0.00025561083799094793 -0.00039817890623382904 0.00027412940997431396 -1.9703631553931921e-05
leaf_weight=11.999999999999998 14.999999999999998 13.999999999999998 15.000000000000004 14.999999999999996
leaf_count=12 15 14 15 15
internal_value=-1.7531e-05 -9.48511e-05 -3.9502e-07 0.000127082
internal_weight=71 59 45 30
internal_count=71 59 45 30
is_linear=0
shrinkage=0.0165685


Tree=116
num_leaves=5
num_cat=0
split_feature=44 4 46 48
split_gain=0.00831216 0.00626497 0.00593928 0.00807922
threshold=0.075953101641225082 0.0078084752778028186 0.4632 0.73834511303286976
decision_type=10 10 10 8
left_child=1 2 -1 -4
right_child=-2 -3 3 -5
leaf_value=1.5209084465084191e-05 5.5343422830004437e-05 3.0204357772352936e-05 -5.0935767565441058e-06 -8.2072819155651089e-05
leaf_weight=12.999999999999998 11.999999999999998 13.999999999999998 14.999999999999998 17
leaf_count=13 12 14 15 17
internal_value=-2.61681e-06 -1.44151e-05 -2.83094e-05 -4.60067e-05
internal_weight=71 59 45 32
internal_count=71 59 45 32
is_linear=0
shrinkage=0.00241625


Tree=117
num_leaves=4
num_cat=0
split_feature=44 20 20
split_gain=0.0088103 0.0115354 0.00776044
threshold=0.075953101641225082 -0.037040953309181883 1.0000000180025095e-35
decision_type=10 10 10
left_child=1 -1 -3
right_child=-2 2 -4
leaf_value=2.0336231734082213e-05 3.7926867095748158e-05 -4.8539820216894523e-05 -2.4129676466624312e-06
leaf_weight=21 11.999999999999998 20 18
leaf_count=21 12 20 18
internal_value=-1.85442e-06 -9.95202e-06 -2.67003e-05
internal_weight=71 59 38
internal_count=71 59 38
is_linear=0
shrinkage=0.00161083


Tree=118
num_leaves=5
num_cat=0
split_feature=44 28 0 16
split_gain=0.00816575 0.00573501 0.0129618 0.00668409
threshold=0.075953101641225082 -0.0068849807221900696 0.0406419298641938 -0.0041634084780617911
decision_type=10 10 8 8
left_child=1 2 -1 -3
right_child=-2 3 -4 -5
leaf_value=4.9371965477170446e-05 6.2622757949494764e-05 -9.5148487892389092e-05 -6.1572194867460262e-05 -4.7147014932918835e-06
leaf_weight=21 11.999999999999998 11.999999999999998 12.999999999999998 13.000000000000002
leaf_count=21 12 12 13 13
internal_value=-3.03137e-06 -1.63959e-05 6.93284e-06 -4.81492e-05
internal_weight=71 59 34 25
internal_count=71 59 34 25
is_linear=0
shrinkage=0.00276142


Tree=119
num_leaves=4
num_cat=0
split_feature=44 20 48
split_gain=0.00773445 0.0105296 0.00970417
threshold=0.075953101641225082 -0.037040953309181883 0.73834511303286976
decision_type=10 10 8
left_child=1 -1 -3
right_child=-2 2 -4
leaf_value=0.00023586179597766545 0.00042693845536448405 -5.3731013107434244e-05 -0.00068593791878787127
leaf_weight=21 11.999999999999998 23 14.999999999999998
leaf_count=21 12 23 15
internal_value=-2.0337e-05 -0.000111386 -0.000303407
internal_weight=71 59 38
internal_count=71 59 38
is_linear=0
shrinkage=0.01933


Tree=120
num_leaves=4
num_cat=0
split_feature=28 40 20
split_gain=0.00866712 0.00683625 0.00913246
threshold=-0.020931125503739375 0.02181153816030305 1.0000000180025095e-35
decision_type=8 8 8
left_child=-1 2 -2
right_child=1 -3 -4
leaf_value=3.4752744884100028e-05 -3.9656081740524493e-05 1.1663809305178479e-05 8.493376396579901e-06
leaf_weight=11.999999999999998 23 22 13.999999999999998
leaf_count=12 23 22 14
internal_value=-1.66882e-06 -9.08258e-06 -2.14278e-05
internal_weight=71 59 37
internal_count=71 59 37
is_linear=0
shrinkage=0.00148692


end of trees

feature_importances:
RET_2=66
RET_6=63
RET_STD_10=61
RET_8=52
RET_5=40
DIST_50=38
DIST_MAX_20=29
RET_1=27
RET_STD_5=14
RET_MEAN_5=8
DIST_MIN_20=5
RET_3=4
RET_7=4
RET_4=1
RET_10=1

parameters:
[boosting: dart]
[objective: regression]
[metric: l1]
[tree_learner: serial]
[device_type: cpu]
[data_sample_strategy: bagging]
[data: ]
[valid: ]
[num_iterations: 121]
[learning_rate: 0.01933]
[num_leaves: 256]
[num_threads: 15]
[seed: 42]
[deterministic: 0]
[force_col_wise: 0]
[force_row_wise: 0]
[histogram_pool_size: -1]
[max_depth: 12]
[min_data_in_leaf: 12]
[min_sum_hessian_in_leaf: 0.001]
[bagging_fraction: 0.798045]
[pos_bagging_fraction: 1]
[neg_bagging_fraction: 1]
[bagging_freq: 0]
[bagging_seed: 400]
[bagging_by_query: 0]
[feature_fraction: 0.69172]
[feature_fraction_bynode: 1]
[feature_fraction_seed: 30056]
[extra_trees: 0]
[extra_seed: 12879]
[early_stopping_round: 0]
[early_stopping_min_delta: 0]
[first_metric_only: 0]
[max_delta_step: 0]
[lambda_l1: 0.000237593]
[lambda_l2: 7.2086e-08]
[linear_lambda: 0]
[min_gain_to_split: 0]
[drop_rate: 0.1]
[max_drop: 50]
[skip_drop: 0.5]
[xgboost_dart_mode: 0]
[uniform_drop: 0]
[drop_seed: 17869]
[top_rate: 0.2]
[other_rate: 0.1]
[min_data_per_group: 100]
[max_cat_threshold: 32]
[cat_l2: 10]
[cat_smooth: 10]
[max_cat_to_onehot: 4]
[top_k: 20]
[monotone_constraints: ]
[monotone_constraints_method: basic]
[monotone_penalty: 0]
[feature_contri: ]
[forcedsplits_filename: ]
[refit_decay_rate: 0.9]
[cegb_tradeoff: 1]
[cegb_penalty_split: 0]
[cegb_penalty_feature_lazy: ]
[cegb_penalty_feature_coupled: ]
[path_smooth: 0]
[interaction_constraints: ]
[verbosity: -1]
[saved_feature_importance_type: 0]
[use_quantized_grad: 0]
[num_grad_quant_bins: 4]
[quant_train_renew_leaf: 0]
[stochastic_rounding: 1]
[linear_tree: 0]
[max_bin: 255]
[max_bin_by_feature: ]
[min_data_in_bin: 3]
[bin_construct_sample_cnt: 200000]
[data_random_seed: 175]
[is_enable_sparse: 1]
[enable_bundle: 1]
[use_missing: 1]
[zero_as_missing: 0]
[feature_pre_filter: 1]
[pre_partition: 0]
[two_round: 0]
[header: 0]
[label_column: ]
[weight_column: ]
[group_column: ]
[ignore_column: ]
[categorical_feature: ]
[forcedbins_filename: ]
[precise_float_parser: 0]
[parser_config_file: ]
[objective_seed: 16083]
[num_class: 1]
[is_unbalance: 0]
[scale_pos_weight: 1]
[sigmoid: 1]
[boost_from_average: 1]
[reg_sqrt: 0]
[alpha: 0.9]
[fair_c: 1]
[poisson_max_delta_step: 0.7]
[tweedie_variance_power: 1.5]
[lambdarank_truncation_level: 30]
[lambdarank_norm: 1]
[label_gain: ]
[lambdarank_position_bias_regularization: 0]
[eval_at: ]
[multi_error_top_k: 1]
[auc_mu_weights: ]
[num_machines: 1]
[local_listen_port: 12400]
[time_out: 120]
[machine_list_filename: ]
[machines: ]
[gpu_platform_id: -1]
[gpu_device_id: -1]
[gpu_use_dp: 0]
[num_gpu: 1]

end of parameters

pandas_categorical:[]
